<Nnet> 
<Splice> 440 40 
[ -5 -4 -3 -2 -1 0 1 2 3 4 5 ]
<AddShift> 440 440 
 [ -9.189949 -12.08866 -13.91355 -14.47103 -14.95856 -15.10407 -15.70216 -17.00184 -17.01036 -16.55954 -16.31904 -16.08394 -16.0842 -16.53081 -16.41062 -16.46352 -17.22856 -17.0947 -16.66467 -17.21281 -17.35207 -16.89972 -16.57757 -16.06211 -16.19963 -16.14225 -15.42769 -15.77032 -15.54449 -16.19895 -16.66548 -15.99129 -15.29695 -14.49912 -14.61524 -14.26237 -13.9612 -13.95811 -14.16357 -14.04629 -9.190421 -12.08904 -13.91405 -14.47152 -14.95897 -15.10441 -15.70254 -17.00227 -17.01069 -16.55975 -16.31932 -16.0842 -16.08445 -16.53119 -16.41096 -16.46387 -17.22899 -17.09515 -16.66503 -17.21317 -17.35234 -16.89997 -16.57773 -16.06235 -16.19984 -16.14245 -15.4279 -15.77055 -15.54484 -16.19933 -16.6659 -15.99173 -15.29744 -14.49964 -14.61577 -14.26295 -13.96178 -13.95863 -14.164 -14.04662 -9.190872 -12.08944 -13.91451 -14.47198 -14.95936 -15.10471 -15.70289 -17.00269 -17.011 -16.55995 -16.31959 -16.08445 -16.0847 -16.53155 -16.41131 -16.4642 -17.22941 -17.09556 -16.66537 -17.21351 -17.3526 -16.90019 -16.57788 -16.06256 -16.20001 -16.14262 -15.42807 -15.77077 -15.54516 -16.19969 -16.66628 -15.99214 -15.29791 -14.50015 -14.61629 -14.2635 -13.96235 -13.95913 -14.1644 -14.04692 -9.191328 -12.0898 -13.91495 -14.47243 -14.95975 -15.105 -15.70321 -17.00308 -17.01132 -16.56015 -16.31986 -16.0847 -16.08497 -16.53189 -16.41165 -16.46453 -17.22982 -17.09595 -16.66567 -17.2138 -17.35283 -16.90039 -16.578 -16.06276 -16.20018 -16.14279 -15.42824 -15.77097 -15.54547 -16.20004 -16.66667 -15.99254 -15.29836 -14.50065 -14.61678 -14.26406 -13.9629 -13.95961 -14.16477 -14.04721 -9.191849 -12.09024 -13.91545 -14.47295 -14.96017 -15.10534 -15.70353 -17.00346 -17.01163 -16.56036 -16.32013 -16.08497 -16.08526 -16.53226 -16.41201 -16.46487 -17.23022 -17.09632 -16.66595 -17.2141 -17.35306 -16.9006 -16.57815 -16.06299 -16.20035 -16.14297 -15.42843 -15.77119 -15.54579 -16.2004 -16.66707 -15.99294 -15.29883 -14.50116 -14.61729 -14.26461 -13.96345 -13.96008 -14.16515 -14.04749 -9.192573 -12.09086 -13.91605 -14.47359 -14.96072 -15.10576 -15.70391 -17.00387 -17.01197 -16.5606 -16.32044 -16.08527 -16.08558 -16.53265 -16.41239 -16.46525 -17.23063 -17.09671 -16.66623 -17.21439 -17.3533 -16.90084 -16.57834 -16.06325 -16.20056 -16.1432 -15.42867 -15.77144 -15.54617 -16.20081 -16.66751 -15.9934 -15.29936 -14.50173 -14.61788 -14.26521 -13.96402 -13.9606 -14.16557 -14.04785 -9.193295 -12.09148 -13.91664 -14.47423 -14.96127 -15.10618 -15.70428 -17.00427 -17.01231 -16.56084 -16.32074 -16.08557 -16.0859 -16.53304 -16.41277 -16.46563 -17.23104 -17.09709 -16.6665 -17.21469 -17.35353 -16.90107 -16.57853 -16.06351 -16.20077 -16.14342 -15.4289 -15.77168 -15.54654 -16.20122 -16.66794 -15.99386 -15.29988 -14.50231 -14.61845 -14.2658 -13.96459 -13.96111 -14.16599 -14.0482 -9.193714 -12.09182 -13.91688 -14.47462 -14.96161 -15.10641 -15.7045 -17.00453 -17.01247 -16.56093 -16.32094 -16.08577 -16.08617 -16.53338 -16.41309 -16.46595 -17.23127 -17.09737 -16.66678 -17.2149 -17.35365 -16.90123 -16.57868 -16.06375 -16.20094 -16.14362 -15.42908 -15.77187 -15.54684 -16.20158 -16.66833 -15.99425 -15.30037 -14.50285 -14.61903 -14.26639 -13.9652 -13.96161 -14.16639 -14.04862 -9.194027 -12.09206 -13.91709 -14.47493 -14.96189 -15.10655 -15.70465 -17.0047 -17.0126 -16.56094 -16.32107 -16.08593 -16.0864 -16.53364 -16.41337 -16.46625 -17.23153 -17.09767 -16.66707 -17.21503 -17.35369 -16.90135 -16.57882 -16.06393 -16.2011 -16.14374 -15.42926 -15.77203 -15.54712 -16.20193 -16.66869 -15.99465 -15.30085 -14.50338 -14.61959 -14.26697 -13.96575 -13.96215 -14.16681 -14.04901 -9.194346 -12.09232 -13.91727 -14.47516 -14.96214 -15.10673 -15.70481 -17.0048 -17.01266 -16.56092 -16.32116 -16.08605 -16.08656 -16.53378 -16.41357 -16.46645 -17.23168 -17.09782 -16.6672 -17.21508 -17.35365 -16.90138 -16.5789 -16.06405 -16.20119 -16.14381 -15.42934 -15.77211 -15.54729 -16.20218 -16.66897 -15.99498 -15.30119 -14.5038 -14.62005 -14.26744 -13.96618 -13.96254 -14.16712 -14.04935 -9.194639 -12.09257 -13.91747 -14.47547 -14.96244 -15.10691 -15.70495 -17.00489 -17.01274 -16.56092 -16.32129 -16.08621 -16.08676 -16.53393 -16.41373 -16.46661 -17.23176 -17.09789 -16.66727 -17.21513 -17.35362 -16.9014 -16.57898 -16.06413 -16.20122 -16.14384 -15.42935 -15.77213 -15.54741 -16.20231 -16.66914 -15.99517 -15.3014 -14.50405 -14.62037 -14.26777 -13.96642 -13.96278 -14.16737 -14.0496 ]
<Rescale> 440 440 
 [ 0.4842429 0.4335335 0.4119643 0.4199507 0.3966639 0.4063344 0.3927352 0.3569645 0.3524511 0.3492411 0.3546753 0.3565019 0.3599554 0.3583774 0.3601825 0.3651613 0.3776792 0.3791694 0.372645 0.3770596 0.3767407 0.3836448 0.4002264 0.4217619 0.4510132 0.4458729 0.4462589 0.4598088 0.4549777 0.4608067 0.4645282 0.4620404 0.4677304 0.4850447 0.4865083 0.4857514 0.482198 0.4749848 0.4612948 0.4604623 0.484375 0.4336055 0.4120613 0.4200563 0.3967523 0.4064232 0.3928346 0.3570558 0.3525096 0.3492766 0.3547202 0.3565392 0.3599966 0.3584292 0.3602291 0.3652066 0.3777531 0.379244 0.3726941 0.3771131 0.3767831 0.3836803 0.4002429 0.4217828 0.4510294 0.4458958 0.4462852 0.4598419 0.4550242 0.4608486 0.4645875 0.4620957 0.4677922 0.4850975 0.4865555 0.4858136 0.4822574 0.4750439 0.4613532 0.4605042 0.4844939 0.433681 0.4121549 0.420158 0.3968357 0.4065015 0.3929298 0.3571433 0.3525653 0.3493114 0.3547634 0.356577 0.3600345 0.358482 0.3602794 0.3652546 0.3778271 0.3793166 0.3727385 0.3771631 0.3768268 0.3837129 0.4002589 0.4218018 0.451043 0.4459219 0.4463056 0.4598722 0.4550676 0.4608986 0.4646454 0.4621527 0.4678562 0.485159 0.4866087 0.4858787 0.4823167 0.4751036 0.4614142 0.4605433 0.4846184 0.4337469 0.4122424 0.4202586 0.3969229 0.4065776 0.3930171 0.3572305 0.3526246 0.3493476 0.354809 0.3566133 0.3600775 0.3585334 0.3603313 0.3653015 0.3779027 0.3793889 0.3727836 0.3772101 0.3768701 0.3837435 0.4002748 0.4218223 0.4510579 0.4459502 0.4463258 0.4599013 0.455113 0.4609456 0.4647079 0.4622095 0.4679202 0.4852152 0.4866582 0.4859508 0.4823802 0.4751697 0.4614789 0.4605904 0.4847625 0.4338343 0.4123446 0.4203757 0.3970162 0.4066692 0.3931079 0.357314 0.3526834 0.3493886 0.3548582 0.3566583 0.3601235 0.3585914 0.3603867 0.3653531 0.377979 0.3794624 0.3728314 0.3772589 0.3769108 0.3837786 0.400299 0.4218524 0.4510812 0.4459859 0.446356 0.4599369 0.4551665 0.4609968 0.4647683 0.4622687 0.467989 0.4852796 0.4867162 0.486026 0.4824497 0.475241 0.4615485 0.4606402 0.4849624 0.4339554 0.4124644 0.4205192 0.3971354 0.4067806 0.3932146 0.3574003 0.3527464 0.3494322 0.354914 0.3567087 0.3601767 0.3586542 0.3604503 0.3654135 0.3780589 0.3795417 0.3728822 0.3773127 0.3769592 0.38382 0.4003325 0.4218927 0.4511132 0.4460289 0.4463963 0.4599837 0.4552321 0.4610585 0.4648327 0.4623335 0.4680674 0.4853579 0.4867853 0.4861096 0.4825227 0.4753216 0.4616289 0.4607028 0.4851606 0.4340761 0.412585 0.4206628 0.397255 0.4068925 0.3933209 0.3574887 0.3528082 0.3494771 0.3549665 0.3567598 0.3602314 0.3587177 0.3605133 0.365474 0.3781405 0.3796229 0.3729314 0.3773673 0.377006 0.3838633 0.4003668 0.421933 0.4511412 0.4460692 0.4464387 0.460028 0.4552948 0.4611205 0.4649002 0.4623964 0.4681434 0.485434 0.4868523 0.4861898 0.4826 0.4754022 0.4617058 0.4607639 0.4852833 0.4341538 0.4126397 0.4207565 0.3973367 0.4069657 0.3933943 0.3575504 0.3528448 0.3495035 0.3550006 0.3567966 0.3602796 0.3587742 0.3605657 0.3655192 0.3781877 0.3796813 0.3729851 0.3774087 0.3770313 0.3838964 0.4003966 0.4219713 0.4511708 0.4461056 0.446474 0.4600686 0.4553542 0.4611713 0.4649616 0.4624487 0.4682035 0.4854923 0.4869151 0.486255 0.4826818 0.4754723 0.4617688 0.4608314 0.4853773 0.4342132 0.4126902 0.4208325 0.3974044 0.4070241 0.3934563 0.3575968 0.352881 0.3495151 0.3550276 0.3568299 0.3603174 0.3588134 0.3606103 0.3655628 0.3782325 0.379739 0.3730348 0.3774359 0.3770447 0.383922 0.4004241 0.4220051 0.4512031 0.4461394 0.4465151 0.4601093 0.45541 0.4612287 0.4650076 0.4624988 0.4682671 0.4855569 0.4869694 0.4863135 0.4827473 0.4755442 0.4618296 0.4608911 0.4854788 0.4342871 0.4127456 0.4209004 0.3974679 0.4070805 0.3935163 0.3576308 0.352904 0.3495246 0.355048 0.3568583 0.3603455 0.3588443 0.3606492 0.3655927 0.3782623 0.3797778 0.3730675 0.3774566 0.3770472 0.3839332 0.4004427 0.4220279 0.4512282 0.4461595 0.4465375 0.4601345 0.4554476 0.4612637 0.465041 0.4625399 0.4683101 0.4856029 0.4870165 0.4863629 0.4827949 0.4755903 0.4618749 0.460943 0.4855712 0.434348 0.4127965 0.420987 0.397542 0.4071412 0.3935737 0.3576624 0.3529292 0.3495417 0.3550788 0.3568948 0.36038 0.3588784 0.3606841 0.3656156 0.3782919 0.3798124 0.3730964 0.3774775 0.3770516 0.3839513 0.4004699 0.4220559 0.4512586 0.4461824 0.4465675 0.4601687 0.4554895 0.4613005 0.4650681 0.462573 0.4683435 0.4856426 0.4870553 0.4863946 0.4828182 0.4756193 0.4619161 0.4609709 ]
</Nnet> 
